<?xml version="1.0"?>
<opencv_storage>
<stage9>
  <maxWeakCount>7</maxWeakCount>
  <stageThreshold>-8.1713604927062988e-01</stageThreshold>
  <weakClassifiers>
    <_>
      <internalNodes>
        0 -1 114258 -5.3364966064691544e-02</internalNodes>
      <leafValues>
        9.2857140302658081e-01 -5.1269036531448364e-01</leafValues></_>
    <_>
      <internalNodes>
        0 -1 5588 -4.5586749911308289e-01</internalNodes>
      <leafValues>
        -7.2769778966903687e-01 3.1702730059623718e-01</leafValues></_>
    <_>
      <internalNodes>
        0 -1 139128 3.6182021722197533e-03</internalNodes>
      <leafValues>
        -3.2924363017082214e-01 8.1755542755126953e-01</leafValues></_>
    <_>
      <internalNodes>
        0 -1 16440 9.5122971106320620e-04</internalNodes>
      <leafValues>
        -2.0956385135650635e-01 7.0670783519744873e-01</leafValues></_>
    <_>
      <internalNodes>
        0 -1 146053 -7.9139381647109985e-02</internalNodes>
      <leafValues>
        7.8702229261398315e-01 -2.1497440338134766e-01</leafValues></_>
    <_>
      <internalNodes>
        0 -1 80330 4.7144613927230239e-04</internalNodes>
      <leafValues>
        -4.1166800260543823e-01 4.3584033846855164e-01</leafValues></_>
    <_>
      <internalNodes>
        0 -1 37968 -2.3609197232872248e-03</internalNodes>
      <leafValues>
        6.7584043741226196e-01 -3.0353146791458130e-01</leafValues></_></weakClassifiers></stage9>
</opencv_storage>
