<?xml version="1.0"?>
<opencv_storage>
<stage7>
  <maxWeakCount>7</maxWeakCount>
  <stageThreshold>-1.0620545148849487e+00</stageThreshold>
  <weakClassifiers>
    <_>
      <internalNodes>
        0 -1 70495 -2.3954384960234165e-03</internalNodes>
      <leafValues>
        5.4621851444244385e-01 -6.4954680204391479e-01</leafValues></_>
    <_>
      <internalNodes>
        0 -1 74017 -4.2382691055536270e-02</internalNodes>
      <leafValues>
        -7.6707690954208374e-01 2.3229949176311493e-01</leafValues></_>
    <_>
      <internalNodes>
        0 -1 41938 -5.9324854612350464e-01</internalNodes>
      <leafValues>
        -5.9656482934951782e-01 4.1164141893386841e-01</leafValues></_>
    <_>
      <internalNodes>
        0 -1 75156 -6.1920110601931810e-04</internalNodes>
      <leafValues>
        7.8317326307296753e-01 -3.8697981834411621e-01</leafValues></_>
    <_>
      <internalNodes>
        0 -1 19521 1.6932040452957153e-01</internalNodes>
      <leafValues>
        2.3679389059543610e-01 -8.9320808649063110e-01</leafValues></_>
    <_>
      <internalNodes>
        0 -1 57369 4.7479808563366532e-04</internalNodes>
      <leafValues>
        -3.9486655592918396e-01 6.5053075551986694e-01</leafValues></_>
    <_>
      <internalNodes>
        0 -1 60370 1.5958347357809544e-03</internalNodes>
      <leafValues>
        -4.2679151892662048e-01 5.6628018617630005e-01</leafValues></_></weakClassifiers></stage7>
</opencv_storage>
