<?xml version="1.0"?>
<opencv_storage>
<stage6>
  <maxWeakCount>6</maxWeakCount>
  <stageThreshold>-9.7478312253952026e-01</stageThreshold>
  <weakClassifiers>
    <_>
      <internalNodes>
        0 -1 9169 -3.1592655181884766e-01</internalNodes>
      <leafValues>
        -6.9387757778167725e-01 3.4615385532379150e-01</leafValues></_>
    <_>
      <internalNodes>
        0 -1 123895 -1.2559360265731812e-01</internalNodes>
      <leafValues>
        4.2169311642646790e-01 -5.4934853315353394e-01</leafValues></_>
    <_>
      <internalNodes>
        0 -1 102115 2.8387527912855148e-02</internalNodes>
      <leafValues>
        -2.7759841084480286e-01 7.8070718050003052e-01</leafValues></_>
    <_>
      <internalNodes>
        0 -1 122538 -7.4145691469311714e-03</internalNodes>
      <leafValues>
        4.4789540767669678e-01 -3.7137964367866516e-01</leafValues></_>
    <_>
      <internalNodes>
        0 -1 1349 1.1718532070517540e-02</internalNodes>
      <leafValues>
        -2.6488527655601501e-01 6.2002116441726685e-01</leafValues></_>
    <_>
      <internalNodes>
        0 -1 48257 2.5511672720313072e-03</internalNodes>
      <leafValues>
        -6.0801041126251221e-01 4.2196258902549744e-01</leafValues></_></weakClassifiers></stage6>
</opencv_storage>
