<?xml version="1.0"?>
<opencv_storage>
<stage4>
  <maxWeakCount>8</maxWeakCount>
  <stageThreshold>-9.7084259986877441e-01</stageThreshold>
  <weakClassifiers>
    <_>
      <internalNodes>
        0 -1 133643 -9.8820943385362625e-03</internalNodes>
      <leafValues>
        4.2342340946197510e-01 -5.8112096786499023e-01</leafValues></_>
    <_>
      <internalNodes>
        0 -1 49057 -9.5331259071826935e-02</internalNodes>
      <leafValues>
        -5.5712914466857910e-01 3.9981099963188171e-01</leafValues></_>
    <_>
      <internalNodes>
        0 -1 132540 3.4669972956180573e-03</internalNodes>
      <leafValues>
        -2.6332864165306091e-01 6.9916146993637085e-01</leafValues></_>
    <_>
      <internalNodes>
        0 -1 156770 -1.5739190857857466e-03</internalNodes>
      <leafValues>
        5.5088180303573608e-01 -3.3063304424285889e-01</leafValues></_>
    <_>
      <internalNodes>
        0 -1 40877 1.6434569261036813e-04</internalNodes>
      <leafValues>
        -3.3366483449935913e-01 5.5176603794097900e-01</leafValues></_>
    <_>
      <internalNodes>
        0 -1 26464 -7.9177185893058777e-02</internalNodes>
      <leafValues>
        -8.6456459760665894e-01 2.4913959205150604e-01</leafValues></_>
    <_>
      <internalNodes>
        0 -1 70631 -3.5650662612169981e-03</internalNodes>
      <leafValues>
        5.7888847589492798e-01 -4.3382364511489868e-01</leafValues></_>
    <_>
      <internalNodes>
        0 -1 135456 -6.6541496198624372e-04</internalNodes>
      <leafValues>
        3.9820319414138794e-01 -4.8760408163070679e-01</leafValues></_></weakClassifiers></stage4>
</opencv_storage>
