<?xml version="1.0"?>
<opencv_storage>
<stage3>
  <maxWeakCount>8</maxWeakCount>
  <stageThreshold>-1.0329339504241943e+00</stageThreshold>
  <weakClassifiers>
    <_>
      <internalNodes>
        0 -1 10835 -2.3114219307899475e-01</internalNodes>
      <leafValues>
        -6.3934427499771118e-01 3.1034481525421143e-01</leafValues></_>
    <_>
      <internalNodes>
        0 -1 121510 1.0964185930788517e-03</internalNodes>
      <leafValues>
        -4.6438780426979065e-01 4.3842032551765442e-01</leafValues></_>
    <_>
      <internalNodes>
        0 -1 70538 -1.0215107351541519e-02</internalNodes>
      <leafValues>
        4.1884371638298035e-01 -4.5878574252128601e-01</leafValues></_>
    <_>
      <internalNodes>
        0 -1 144717 -8.0354269593954086e-03</internalNodes>
      <leafValues>
        -7.6609444618225098e-01 2.6377156376838684e-01</leafValues></_>
    <_>
      <internalNodes>
        0 -1 38004 -3.7605394609272480e-03</internalNodes>
      <leafValues>
        7.5030511617660522e-01 -2.6183837652206421e-01</leafValues></_>
    <_>
      <internalNodes>
        0 -1 126340 1.4807386323809624e-02</internalNodes>
      <leafValues>
        -2.0160259306430817e-01 8.0513817071914673e-01</leafValues></_>
    <_>
      <internalNodes>
        0 -1 52709 3.6657623946666718e-02</internalNodes>
      <leafValues>
        -7.4701786041259766e-01 2.7534371614456177e-01</leafValues></_>
    <_>
      <internalNodes>
        0 -1 42317 8.7798880413174629e-03</internalNodes>
      <leafValues>
        -3.0416646599769592e-01 7.0673233270645142e-01</leafValues></_></weakClassifiers></stage3>
</opencv_storage>
